digraph Tree {
node [shape=box] ;
0 [label="X[18] <= 0.56\ngini = 0.846\nsamples = 366\nvalue = [55, 10, 31, 13, 6, 3, 21, 56, 98, 20, 53]"] ;
1 [label="X[15] <= 61.69\ngini = 0.812\nsamples = 307\nvalue = [17, 9, 31, 0, 3, 0, 21, 56, 98, 19, 53]"] ;
0 -> 1 [labeldistance=2.5, labelangle=45, headlabel="True"] ;
2 [label="X[21] <= 140377.0\ngini = 0.754\nsamples = 83\nvalue = [0, 0, 27, 0, 0, 0, 3, 15, 0, 17, 21]"] ;
1 -> 2 ;
3 [label="X[20] <= 12772278.0\ngini = 0.691\nsamples = 54\nvalue = [0, 0, 0, 0, 0, 0, 3, 15, 0, 15, 21]"] ;
2 -> 3 ;
4 [label="X[4] <= 0.724\ngini = 0.556\nsamples = 39\nvalue = [0, 0, 0, 0, 0, 0, 3, 15, 0, 0, 21]"] ;
3 -> 4 ;
5 [label="gini = 0.0\nsamples = 19\nvalue = [0, 0, 0, 0, 0, 0, 0, 0, 0, 0, 19]"] ;
4 -> 5 ;
6 [label="X[18] <= 0.198\ngini = 0.405\nsamples = 20\nvalue = [0, 0, 0, 0, 0, 0, 3, 15, 0, 0, 2]"] ;
4 -> 6 ;
7 [label="X[10] <= 0.174\ngini = 0.375\nsamples = 4\nvalue = [0, 0, 0, 0, 0, 0, 3, 0, 0, 0, 1]"] ;
6 -> 7 ;
8 [label="gini = 0.0\nsamples = 3\nvalue = [0, 0, 0, 0, 0, 0, 3, 0, 0, 0, 0]"] ;
7 -> 8 ;
9 [label="gini = 0.0\nsamples = 1\nvalue = [0, 0, 0, 0, 0, 0, 0, 0, 0, 0, 1]"] ;
7 -> 9 ;
10 [label="X[15] <= 53.61\ngini = 0.117\nsamples = 16\nvalue = [0, 0, 0, 0, 0, 0, 0, 15, 0, 0, 1]"] ;
6 -> 10 ;
11 [label="gini = 0.0\nsamples = 15\nvalue = [0, 0, 0, 0, 0, 0, 0, 15, 0, 0, 0]"] ;
10 -> 11 ;
12 [label="gini = 0.0\nsamples = 1\nvalue = [0, 0, 0, 0, 0, 0, 0, 0, 0, 0, 1]"] ;
10 -> 12 ;
13 [label="gini = 0.0\nsamples = 15\nvalue = [0, 0, 0, 0, 0, 0, 0, 0, 0, 15, 0]"] ;
3 -> 13 ;
14 [label="X[6] <= 1.115\ngini = 0.128\nsamples = 29\nvalue = [0, 0, 27, 0, 0, 0, 0, 0, 0, 2, 0]"] ;
2 -> 14 ;
15 [label="gini = 0.0\nsamples = 27\nvalue = [0, 0, 27, 0, 0, 0, 0, 0, 0, 0, 0]"] ;
14 -> 15 ;
16 [label="gini = 0.0\nsamples = 2\nvalue = [0, 0, 0, 0, 0, 0, 0, 0, 0, 2, 0]"] ;
14 -> 16 ;
17 [label="X[5] <= 3097.0\ngini = 0.74\nsamples = 224\nvalue = [17, 9, 4, 0, 3, 0, 18, 41, 98, 2, 32]"] ;
1 -> 17 ;
18 [label="X[6] <= -0.246\ngini = 0.708\nsamples = 209\nvalue = [2, 9, 4, 0, 3, 0, 18, 41, 98, 2, 32]"] ;
17 -> 18 ;
19 [label="X[5] <= 145.922\ngini = 0.529\nsamples = 32\nvalue = [0, 0, 0, 0, 0, 0, 16, 15, 0, 0, 1]"] ;
18 -> 19 ;
20 [label="gini = 0.0\nsamples = 11\nvalue = [0, 0, 0, 0, 0, 0, 11, 0, 0, 0, 0]"] ;
19 -> 20 ;
21 [label="X[2] <= 9.855\ngini = 0.431\nsamples = 21\nvalue = [0, 0, 0, 0, 0, 0, 5, 15, 0, 0, 1]"] ;
19 -> 21 ;
22 [label="X[5] <= 611.257\ngini = 0.349\nsamples = 19\nvalue = [0, 0, 0, 0, 0, 0, 3, 15, 0, 0, 1]"] ;
21 -> 22 ;
23 [label="X[5] <= 162.353\ngini = 0.208\nsamples = 17\nvalue = [0, 0, 0, 0, 0, 0, 2, 15, 0, 0, 0]"] ;
22 -> 23 ;
24 [label="X[12] <= 9.831\ngini = 0.5\nsamples = 4\nvalue = [0, 0, 0, 0, 0, 0, 2, 2, 0, 0, 0]"] ;
23 -> 24 ;
25 [label="gini = 0.0\nsamples = 2\nvalue = [0, 0, 0, 0, 0, 0, 0, 2, 0, 0, 0]"] ;
24 -> 25 ;
26 [label="gini = 0.0\nsamples = 2\nvalue = [0, 0, 0, 0, 0, 0, 2, 0, 0, 0, 0]"] ;
24 -> 26 ;
27 [label="gini = 0.0\nsamples = 13\nvalue = [0, 0, 0, 0, 0, 0, 0, 13, 0, 0, 0]"] ;
23 -> 27 ;
28 [label="X[1] <= 0.026\ngini = 0.5\nsamples = 2\nvalue = [0, 0, 0, 0, 0, 0, 1, 0, 0, 0, 1]"] ;
22 -> 28 ;
29 [label="gini = 0.0\nsamples = 1\nvalue = [0, 0, 0, 0, 0, 0, 1, 0, 0, 0, 0]"] ;
28 -> 29 ;
30 [label="gini = 0.0\nsamples = 1\nvalue = [0, 0, 0, 0, 0, 0, 0, 0, 0, 0, 1]"] ;
28 -> 30 ;
31 [label="gini = 0.0\nsamples = 2\nvalue = [0, 0, 0, 0, 0, 0, 2, 0, 0, 0, 0]"] ;
21 -> 31 ;
32 [label="X[21] <= 160645.0\ngini = 0.637\nsamples = 177\nvalue = [2, 9, 4, 0, 3, 0, 2, 26, 98, 2, 31]"] ;
18 -> 32 ;
33 [label="X[20] <= 19785404.0\ngini = 0.715\nsamples = 134\nvalue = [2, 9, 4, 0, 3, 0, 2, 26, 59, 0, 29]"] ;
32 -> 33 ;
34 [label="X[21] <= 153133.5\ngini = 0.627\nsamples = 110\nvalue = [1, 2, 4, 0, 0, 0, 2, 13, 59, 0, 29]"] ;
33 -> 34 ;
35 [label="X[16] <= 0.525\ngini = 0.594\nsamples = 94\nvalue = [1, 2, 4, 0, 0, 0, 2, 13, 56, 0, 16]"] ;
34 -> 35 ;
36 [label="X[10] <= 0.037\ngini = 0.47\nsamples = 80\nvalue = [0, 0, 0, 0, 0, 0, 2, 13, 56, 0, 9]"] ;
35 -> 36 ;
37 [label="X[17] <= -0.018\ngini = 0.576\nsamples = 21\nvalue = [0, 0, 0, 0, 0, 0, 1, 11, 8, 0, 1]"] ;
36 -> 37 ;
38 [label="gini = 0.0\nsamples = 8\nvalue = [0, 0, 0, 0, 0, 0, 0, 0, 8, 0, 0]"] ;
37 -> 38 ;
39 [label="X[6] <= 2.042\ngini = 0.272\nsamples = 13\nvalue = [0, 0, 0, 0, 0, 0, 1, 11, 0, 0, 1]"] ;
37 -> 39 ;
40 [label="X[13] <= 307.411\ngini = 0.153\nsamples = 12\nvalue = [0, 0, 0, 0, 0, 0, 0, 11, 0, 0, 1]"] ;
39 -> 40 ;
41 [label="gini = 0.0\nsamples = 11\nvalue = [0, 0, 0, 0, 0, 0, 0, 11, 0, 0, 0]"] ;
40 -> 41 ;
42 [label="gini = 0.0\nsamples = 1\nvalue = [0, 0, 0, 0, 0, 0, 0, 0, 0, 0, 1]"] ;
40 -> 42 ;
43 [label="gini = 0.0\nsamples = 1\nvalue = [0, 0, 0, 0, 0, 0, 1, 0, 0, 0, 0]"] ;
39 -> 43 ;
44 [label="X[20] <= 11098146.0\ngini = 0.318\nsamples = 59\nvalue = [0, 0, 0, 0, 0, 0, 1, 2, 48, 0, 8]"] ;
36 -> 44 ;
45 [label="X[16] <= 0.34\ngini = 0.545\nsamples = 24\nvalue = [0, 0, 0, 0, 0, 0, 1, 1, 14, 0, 8]"] ;
44 -> 45 ;
46 [label="gini = 0.0\nsamples = 14\nvalue = [0, 0, 0, 0, 0, 0, 0, 0, 14, 0, 0]"] ;
45 -> 46 ;
47 [label="X[12] <= 10.092\ngini = 0.34\nsamples = 10\nvalue = [0, 0, 0, 0, 0, 0, 1, 1, 0, 0, 8]"] ;
45 -> 47 ;
48 [label="gini = 0.0\nsamples = 8\nvalue = [0, 0, 0, 0, 0, 0, 0, 0, 0, 0, 8]"] ;
47 -> 48 ;
49 [label="X[19] <= 0.025\ngini = 0.5\nsamples = 2\nvalue = [0, 0, 0, 0, 0, 0, 1, 1, 0, 0, 0]"] ;
47 -> 49 ;
50 [label="gini = 0.0\nsamples = 1\nvalue = [0, 0, 0, 0, 0, 0, 1, 0, 0, 0, 0]"] ;
49 -> 50 ;
51 [label="gini = 0.0\nsamples = 1\nvalue = [0, 0, 0, 0, 0, 0, 0, 1, 0, 0, 0]"] ;
49 -> 51 ;
52 [label="X[22] <= 87.0\ngini = 0.056\nsamples = 35\nvalue = [0, 0, 0, 0, 0, 0, 0, 1, 34, 0, 0]"] ;
44 -> 52 ;
53 [label="gini = 0.0\nsamples = 1\nvalue = [0, 0, 0, 0, 0, 0, 0, 1, 0, 0, 0]"] ;
52 -> 53 ;
54 [label="gini = 0.0\nsamples = 34\nvalue = [0, 0, 0, 0, 0, 0, 0, 0, 34, 0, 0]"] ;
52 -> 54 ;
55 [label="X[18] <= 0.241\ngini = 0.643\nsamples = 14\nvalue = [1, 2, 4, 0, 0, 0, 0, 0, 0, 0, 7]"] ;
35 -> 55 ;
56 [label="gini = 0.0\nsamples = 7\nvalue = [0, 0, 0, 0, 0, 0, 0, 0, 0, 0, 7]"] ;
55 -> 56 ;
57 [label="X[9] <= 0.22\ngini = 0.571\nsamples = 7\nvalue = [1, 2, 4, 0, 0, 0, 0, 0, 0, 0, 0]"] ;
55 -> 57 ;
58 [label="X[2] <= 44.74\ngini = 0.444\nsamples = 3\nvalue = [1, 2, 0, 0, 0, 0, 0, 0, 0, 0, 0]"] ;
57 -> 58 ;
59 [label="gini = 0.0\nsamples = 2\nvalue = [0, 2, 0, 0, 0, 0, 0, 0, 0, 0, 0]"] ;
58 -> 59 ;
60 [label="gini = 0.0\nsamples = 1\nvalue = [1, 0, 0, 0, 0, 0, 0, 0, 0, 0, 0]"] ;
58 -> 60 ;
61 [label="gini = 0.0\nsamples = 4\nvalue = [0, 0, 4, 0, 0, 0, 0, 0, 0, 0, 0]"] ;
57 -> 61 ;
62 [label="X[18] <= 0.203\ngini = 0.305\nsamples = 16\nvalue = [0, 0, 0, 0, 0, 0, 0, 0, 3, 0, 13]"] ;
34 -> 62 ;
63 [label="gini = 0.0\nsamples = 3\nvalue = [0, 0, 0, 0, 0, 0, 0, 0, 3, 0, 0]"] ;
62 -> 63 ;
64 [label="gini = 0.0\nsamples = 13\nvalue = [0, 0, 0, 0, 0, 0, 0, 0, 0, 0, 13]"] ;
62 -> 64 ;
65 [label="X[6] <= 0.326\ngini = 0.604\nsamples = 24\nvalue = [1, 7, 0, 0, 3, 0, 0, 13, 0, 0, 0]"] ;
33 -> 65 ;
66 [label="gini = 0.0\nsamples = 13\nvalue = [0, 0, 0, 0, 0, 0, 0, 13, 0, 0, 0]"] ;
65 -> 66 ;
67 [label="X[12] <= 2.316\ngini = 0.512\nsamples = 11\nvalue = [1, 7, 0, 0, 3, 0, 0, 0, 0, 0, 0]"] ;
65 -> 67 ;
68 [label="gini = 0.0\nsamples = 3\nvalue = [0, 0, 0, 0, 3, 0, 0, 0, 0, 0, 0]"] ;
67 -> 68 ;
69 [label="X[15] <= 88.753\ngini = 0.219\nsamples = 8\nvalue = [1, 7, 0, 0, 0, 0, 0, 0, 0, 0, 0]"] ;
67 -> 69 ;
70 [label="gini = 0.0\nsamples = 1\nvalue = [1, 0, 0, 0, 0, 0, 0, 0, 0, 0, 0]"] ;
69 -> 70 ;
71 [label="gini = 0.0\nsamples = 7\nvalue = [0, 7, 0, 0, 0, 0, 0, 0, 0, 0, 0]"] ;
69 -> 71 ;
72 [label="X[18] <= 0.369\ngini = 0.173\nsamples = 43\nvalue = [0, 0, 0, 0, 0, 0, 0, 0, 39, 2, 2]"] ;
32 -> 72 ;
73 [label="X[16] <= 0.451\ngini = 0.5\nsamples = 12\nvalue = [0, 0, 0, 0, 0, 0, 0, 0, 8, 2, 2]"] ;
72 -> 73 ;
74 [label="gini = 0.0\nsamples = 8\nvalue = [0, 0, 0, 0, 0, 0, 0, 0, 8, 0, 0]"] ;
73 -> 74 ;
75 [label="X[19] <= 0.04\ngini = 0.5\nsamples = 4\nvalue = [0, 0, 0, 0, 0, 0, 0, 0, 0, 2, 2]"] ;
73 -> 75 ;
76 [label="gini = 0.0\nsamples = 2\nvalue = [0, 0, 0, 0, 0, 0, 0, 0, 0, 2, 0]"] ;
75 -> 76 ;
77 [label="gini = 0.0\nsamples = 2\nvalue = [0, 0, 0, 0, 0, 0, 0, 0, 0, 0, 2]"] ;
75 -> 77 ;
78 [label="gini = 0.0\nsamples = 31\nvalue = [0, 0, 0, 0, 0, 0, 0, 0, 31, 0, 0]"] ;
72 -> 78 ;
79 [label="gini = 0.0\nsamples = 15\nvalue = [15, 0, 0, 0, 0, 0, 0, 0, 0, 0, 0]"] ;
17 -> 79 ;
80 [label="X[5] <= 4752.0\ngini = 0.531\nsamples = 59\nvalue = [38, 1, 0, 13, 3, 3, 0, 0, 0, 1, 0]"] ;
0 -> 80 [labeldistance=2.5, labelangle=-45, headlabel="False"] ;
81 [label="X[15] <= 84.571\ngini = 0.213\nsamples = 43\nvalue = [38, 1, 0, 0, 3, 0, 0, 0, 0, 1, 0]"] ;
80 -> 81 ;
82 [label="X[7] <= 3.678\ngini = 0.05\nsamples = 39\nvalue = [38, 0, 0, 0, 0, 0, 0, 0, 0, 1, 0]"] ;
81 -> 82 ;
83 [label="gini = 0.0\nsamples = 38\nvalue = [38, 0, 0, 0, 0, 0, 0, 0, 0, 0, 0]"] ;
82 -> 83 ;
84 [label="gini = 0.0\nsamples = 1\nvalue = [0, 0, 0, 0, 0, 0, 0, 0, 0, 1, 0]"] ;
82 -> 84 ;
85 [label="X[16] <= 0.582\ngini = 0.375\nsamples = 4\nvalue = [0, 1, 0, 0, 3, 0, 0, 0, 0, 0, 0]"] ;
81 -> 85 ;
86 [label="gini = 0.0\nsamples = 1\nvalue = [0, 1, 0, 0, 0, 0, 0, 0, 0, 0, 0]"] ;
85 -> 86 ;
87 [label="gini = 0.0\nsamples = 3\nvalue = [0, 0, 0, 0, 3, 0, 0, 0, 0, 0, 0]"] ;
85 -> 87 ;
88 [label="X[7] <= 1.163\ngini = 0.305\nsamples = 16\nvalue = [0, 0, 0, 13, 0, 3, 0, 0, 0, 0, 0]"] ;
80 -> 88 ;
89 [label="gini = 0.0\nsamples = 3\nvalue = [0, 0, 0, 0, 0, 3, 0, 0, 0, 0, 0]"] ;
88 -> 89 ;
90 [label="gini = 0.0\nsamples = 13\nvalue = [0, 0, 0, 13, 0, 0, 0, 0, 0, 0, 0]"] ;
88 -> 90 ;
}
